100 64
10 0.017700186 0.042473212 0.099189736 -0.03346469 -0.03859352 -0.22623469 -0.039343983 -0.00075637986 -0.061762042 0.036350675 -0.023714833 -0.0053569106 -0.042168416 -0.025453527 -0.031521227 0.056336462 -0.055434544 0.15431404 -0.0043370808 0.24234508 -0.011696466 0.1614826 0.1252194 -0.0962569 0.05681105 0.10135522 -0.21600758 -0.051051646 0.046311468 0.009306209 -0.0098485295 0.11941455 -0.06371685 0.0019371092 -0.10170359 -0.1319438 0.10703215 -0.11286609 0.08226059 -0.043750674 -0.021127071 -0.02867298 -0.27591127 -0.009854407 0.24278435 0.064220175 0.17523116 -0.03118725 0.082514405 0.07368065 -0.05721233 0.06826442 0.041578524 0.1853559 0.20051116 0.019823294 0.1097531 0.04573138 -0.024411878 0.13633914 -0.13285835 -0.08788381 0.0010901269 -0.021624338
94 0.010290974 -0.1295194 -0.03229704 0.05880852 0.11109484 -0.0661623 -0.00072959985 0.1232462 -0.10910173 -0.10941062 0.010214376 -0.11192888 0.0035614409 -0.13666524 -0.09842443 0.22216481 -0.0004468762 -0.15672831 0.088361055 0.18273205 -0.005698081 0.008518904 0.02050655 -0.14077944 -0.03753403 0.16656953 -0.20759703 -0.044398554 -0.05094655 0.10105502 -0.087677725 -0.097489886 -0.08106971 -0.13983247 0.021440348 -0.047699556 -0.13237284 -0.06821812 0.0701113 -0.0039045133 -0.08602994 0.0048651258 0.030137796 -0.12011707 0.15090325 -0.013620557 0.024385083 0.109843135 0.078845315 0.102999695 0.0524183 0.008322658 0.07455137 0.22135198 0.07429217 0.040361352 0.07441826 0.08186607 0.15754236 0.09128532 -0.082968846 -0.32197607 0.107433826 -0.07004093
50 0.17443098 0.013220005 0.19106533 0.08120103 -0.07712597 -0.0866347 0.15334512 0.052112937 -0.2279704 -0.0949843 0.14447396 -0.025017124 -0.22029622 -0.1647824 0.035284754 -0.04191329 -0.032657746 0.021262232 0.03726078 0.15993194 0.13967103 0.2007435 0.087336265 -0.1175679 -0.0030802411 0.17020331 -0.12227155 -0.035984486 0.027896242 -0.13394818 0.064029254 -0.055646695 -0.066073 0.021006623 -0.06880338 -0.11997305 -0.0053296844 -0.083967045 0.12884276 -0.079083145 0.05490598 0.01720302 0.04118339 -0.04972007 0.14076051 -0.055665523 -0.0020573915 -0.022539163 0.044205252 -0.032221913 -0.03207502 -0.057157014 0.016776383 -0.021525977 0.09550121 0.10554975 0.108174436 0.08622049 -0.11944405 0.13680004 -0.10496112 -0.0810626 -0.11217124 -0.06841551
80 0.0010656915 -0.123338394 0.03891195 0.054465804 0.03838317 -0.10553132 0.19745871 0.10252243 -0.042834554 -0.020266632 0.06677759 0.036251966 -0.205721 -0.10024766 0.0034015148 0.047939673 0.09017051 -0.0104457745 -0.0514168 0.13731188 0.12088475 0.10403735 0.17479934 -0.0510778 -0.016441 0.12704252 -0.040168677 -0.06207132 0.12868617 -0.16851947 0.018451298 0.0904461 0.05708534 0.06234253 -0.19412781 -0.09565128 0.052991178 0.086086296 0.21393946 0.044099264 -0.229528 -0.016929291 -0.115821645 -0.050133396 0.08900511 0.021215077 0.20391606 0.03574629 -0.14854187 -0.0055121128 -0.10480244 0.04895874 0.074976385 0.18193014 -0.028358888 0.16036387 -0.116025195 -0.037799485 0.17797731 0.05808759 -0.021191845 -0.29932997 0.077881075 -0.106525674
71 -0.03746653 -0.21421163 0.11870795 0.086768724 -0.13412492 -0.024488905 0.19994265 0.06969581 -0.08467786 0.051915422 -0.008509993 -0.12637293 -0.15605712 -0.007806767 -0.0046366556 0.10220455 0.00071532704 -0.07265503 0.04268009 0.34771392 0.2845042 0.14504108 0.041708156 -0.01001246 -0.11029851 -0.10958726 -0.016993675 -0.09397783 0.14909716 -0.004427666 -0.19890453 0.021366585 0.120554425 0.008889319 -0.11657616 0.0083727045 0.06065955 0.05159179 0.051371407 -0.12274262 -0.056847665 -0.10346727 -0.1135758 -0.14809074 0.1473966 -0.023622748 0.087262265 -0.11270748 -0.021724232 0.11867275 0.050894935 -0.002951712 0.072511464 0.06952801 0.07841812 0.034990553 0.017558383 0.022511961 0.1013893 0.12701915 -0.12981758 0.06869159 0.018371442 -0.023068069
21 0.06355198 -0.13973132 0.17874174 0.0705811 -0.05539256 -0.09018274 0.2736877 0.029507231 -0.15614295 -0.06592425 -0.060256805 -0.24381219 -0.18768157 -0.15263298 -0.0012874779 0.023102917 -0.0934915 -0.18117271 -0.082027726 0.04729445 0.12569045 0.068019696 0.1672644 -0.13221258 0.077107176 0.10125476 0.0061634914 0.14698431 0.030343184 -0.033972606 -0.09367378 0.057526764 -0.11434481 -0.045763046 0.042859033 -0.13678695 -0.19334267 0.052091293 0.116956994 -0.05018464 -0.027898418 -0.04478245 -0.1374724 -0.077397816 0.122699484 -0.0955779 0.031031776 -0.0048424033 0.056808908 0.18143964 0.22141835 0.07386866 0.006839685 0.07711714 -0.03728732 0.08107231 -0.014460619 0.092925355 0.098983064 -0.012818577 0.021665126 -0.009923623 0.08288842 -0.126184
74 0.13711445 -0.10889128 0.09121255 0.10480019 -0.05381779 -0.16234021 -0.05128856 0.15979442 -0.022701789 -0.06882824 -0.08164377 -0.3297947 -0.004693518 -0.28179803 -0.014148266 0.03810114 0.11321649 -0.01573796 -0.122131005 0.20618466 0.09131992 0.10199205 0.16582821 -0.016314937 -0.045995116 0.13115789 -0.024247896 0.03052762 0.12894985 -0.02828604 -0.05358229 0.026839463 0.08503761 0.011052279 0.072864145 -0.000829697 0.09266034 -0.039008815 0.008647378 0.013278386 -0.122353256 -0.051616814 -0.056404255 -0.0485615 0.23183183 -0.08399203 -0.047864955 -0.05086183 -0.05220938 -0.018848512 -0.11702746 -0.0038241968 0.010635633 0.18485236 -0.017146913 0.10916435 -0.011422079 0.032211386 -0.10673462 0.05946121 -0.18383092 -0.03157286 0.09419872 -0.046795607
69 0.10374907 -0.010023461 0.09205853 -0.016729606 0.008611937 0.0072613102 0.07047654 0.0794308 -0.007919318 -0.23330887 0.04815825 -0.0897546 -0.20459223 -0.026028216 0.015535456 0.013530137 0.014059328 -0.0015308434 -0.119477116 0.33410454 0.09814857 0.037597425 0.20077834 -0.063038364 0.15147881 0.17197032 -0.006730619 -0.031049857 0.10979668 -0.08629631 -0.043564625 -0.17814228 -0.11749286 -0.14278193 -0.10892635 0.0878849 -0.03648785 0.022303019 0.056860607 -0.050376993 0.028504556 0.052474838 0.09739631 0.07625639 0.1752605 -0.15054981 -0.035064638 -0.041894946 0.09134119 0.070874885 -0.121290654 -0.059863202 0.0014767629 0.25549522 -0.12120026 0.027469276 -0.07904305 0.137829 0.14802374 0.2298037 -0.17565486 -0.014675532 0.03633645 -0.020171588
48 0.12668222 -0.0067560864 0.03645616 0.11722998 -0.066933766 -0.07210324 -0.093971394 0.008794911 -0.12436837 -0.06268646 -0.013347164 -0.15149337 -0.22695546 -0.104741916 0.061053474 0.059581555 -0.046117734 0.07337859 0.15892401 0.116592996 0.057834126 0.16411416 0.05200448 -0.18208747 0.13237837 0.22181726 0.0050134864 0.04681271 0.31074923 0.032623686 -0.17751846 -0.07933822 0.016821975 -0.15530801 -0.2077566 -0.109460436 -0.16111214 -0.13824672 -0.090887055 -0.13069256 0.0765948 -0.074636884 -0.06315453 -0.11910054 0.008922267 0.07650643 0.18660633 -0.02521628 0.042392224 -0.044562507 0.09064049 0.0058166757 0.14712779 0.0714962 0.08524667 0.014012167 -0.08564303 -0.011446633 -0.045081872 0.2599587 -0.08806026 -0.14967306 -0.047038943 -0.040327914
70 -0.17126842 0.037386015 0.0809162 0.1663441 -0.03921965 -0.23662284 0.22621132 -0.11334437 -0.0345948 -0.19381821 0.04040204 -0.1121624 -0.064968586 -0.106608674 0.031062819 0.09211628 0.07859835 0.090764746 -0.07798361 0.06216003 0.15242068 0.02668692 0.16242126 -0.14710109 0.032244988 -0.12599604 -0.22687437 0.031803086 0.086617 -0.05374193 0.010885279 0.06859134 -0.041730486 -0.15526402 -0.07799296 -0.11162026 -0.09451983 0.05617288 0.13343877 -0.095833726 -0.045994405 -0.1293762 -0.11098105 -0.01922402 0.11909465 -0.007430908 0.029264092 -0.048065767 -0.120971546 0.076680794 -0.028304 -0.02438866 0.12470926 0.2062134 0.05235714 -0.10326454 -0.23579498 0.010929479 0.16142212 0.22176993 -0.092184775 -0.06585262 -0.18764775 -0.10687028
28 0.1099619 -0.11440396 0.029285496 0.091380484 -0.0453165 -0.2009631 0.00089096866 0.14971212 -0.16725312 0.019335428 -0.08352501 -0.20560694 -0.048895955 -0.118674256 0.07915424 0.1194406 0.019906666 0.104384325 0.14007175 0.11225673 0.17569788 0.021718867 0.09950972 -0.18955538 -0.16110978 0.08184144 -0.042338595 -0.15056403 -0.16281272 0.035985895 -0.043607343 -0.04653869 0.032446668 0.061957315 -0.0051512974 -0.15679453 0.18705061 -0.042361576 0.079666264 -0.016514828 0.06912814 -0.113177285 -0.08609667 -0.10901978 0.16773571 -0.193214 -0.030867418 -0.021809395 -0.012783953 0.2844721 -0.07400517 -0.09118341 -0.098522834 -0.0043823877 0.1406428 -0.07140261 0.021706073 0.066996016 -0.013449048 0.25177938 0.06788111 -0.2309845 0.05315328 0.11043765
33 0.020788748 0.020971699 0.13307668 0.14590277 -0.0013630488 -0.011184674 0.007296961 0.036668204 -0.14280105 -0.13570666 -0.16339202 -0.020102477 -0.15993264 -0.08735676 -0.09896016 0.12084354 0.027127245 -0.046224996 -0.009634566 0.34236497 0.0019300127 0.3139268 0.06173863 -0.17147863 -0.063507974 0.026560618 -0.1922661 0.03207407 -0.048051048 -0.075416096 -0.11286331 -0.06485755 -0.11666152 -0.12875357 -0.0072711334 0.091933474 0.07257921 0.061144106 0.04350694 -0.010273488 0.052596357 0.013555196 -0.05326187 -0.001329531 0.14560246 0.0449577 -0.08693791 -0.020526305 -0.03337409 -0.009745768 -0.06859192 0.20528115 -0.07651585 0.2814331 0.066458866 0.08673805 0.058342513 -0.21507005 -0.106414296 0.14969255 -0.034585163 -0.0028564578 -0.031889956 0.06808128
93 0.19937277 0.00015918093 0.21008979 -0.016986579 -0.0048229205 -0.24207066 0.12325497 0.10027567 -0.030597286 -0.14239205 0.05273333 -0.1455416 0.0458707 -0.2151486 0.11023704 0.17147022 -0.06455643 -0.0401289 0.023904607 0.20193416 0.19910279 0.14162725 -0.12871653 0.04045084 0.07727638 0.04241537 -0.018866168 0.044794053 0.045105226 0.13730946 -0.1669084 0.009001837 0.00925904 -0.11301377 -0.038631026 -0.10038525 0.026173985 0.34474432 0.03918321 0.1651339 0.03041558 0.045348544 0.0010905281 0.18379276 0.14184764 -0.021298818 0.005211814 -0.074615754 -0.014032793 0.11994814 0.027855268 0.021204391 0.0019605467 0.09415819 0.2055492 -0.056857884 -0.020843498 0.05020382 -0.010895285 0.11369303 -0.09494118 -0.2539452 0.08672698 -0.15928443
57 -0.026106121 -0.09614551 0.100016475 0.08385656 0.0016742573 -0.1046589 0.04470096 -0.07594175 -0.110841505 0.059842348 0.2130545 -0.13049604 -0.027966281 -0.054448538 -0.10135602 0.08973128 -0.034964804 -0.026514899 -0.08208955 0.08632796 0.09763756 0.05721357 -0.047934476 -0.031489942 -0.0990794 0.046257272 -0.1385205 0.059799343 -0.0023474798 0.15746439 -0.15562032 0.11969145 -0.015766177 -0.048060045 -0.0076967 -0.057652052 0.10730289 -0.085797094 0.19639891 -0.121583 0.004111537 0.035585668 -0.14280291 -0.11010206 0.09624989 -0.09579072 0.1691068 -0.061518583 0.049726706 0.024302078 0.16474378 -0.14030193 -0.05305139 0.17307504 0.22174096 0.0028643822 0.018574035 -0.044814307 0.08727252 0.20781273 0.067448206 -0.28421885 0.10776229 0.1305063
55 0.10267293 -0.15275727 0.06331753 0.14507242 -0.16408606 0.20943055 -0.07658513 0.02623659 -0.015664734 -0.03635242 0.047174953 -0.2184765 0.028924588 -0.13568334 0.1616115 0.103757925 -0.0974102 -0.07173876 -0.046168275 0.22390392 0.014351125 -0.027046613 0.17240936 0.019561734 0.022540104 0.064018205 -0.061678767 0.080145285 0.07204271 0.03526329 -0.25516403 0.016706333 -0.059996247 -0.1174534 -0.0764674 -0.14860271 0.07449462 -0.05323822 0.13375254 0.014873385 0.20320024 0.006196342 -0.03990016 0.11229851 0.027171716 -0.11753507 -0.07750945 -0.024294594 -0.12591003 0.12574914 0.0024747578 0.12681465 0.11358536 0.20019951 0.05073139 0.109526165 -0.040089425 -0.04021172 0.18029392 0.1414335 -0.1620613 -0.06939079 0.19507356 -0.16283168
65 0.013712461 0.07067013 0.11371621 0.03135179 0.06536465 -0.15319863 0.10630058 0.040856738 -0.26656994 -0.08410306 0.07333342 -0.020386321 -0.017063797 -0.26747292 0.020804074 0.011991496 0.2244203 0.15357047 -0.103485405 0.22104467 0.08137776 0.078766614 0.14008386 -0.18212631 -0.0741877 -0.02671955 -0.15863621 -0.008780084 0.05824183 -0.031957038 -0.20796596 -0.12491327 -0.06775382 0.011565134 -0.012897814 -0.04179124 0.03736085 -0.1624691 0.034184493 0.05862998 0.046607483 -0.022804594 0.0415565 0.10357892 0.07174916 -0.07372155 0.03926217 0.14195812 -0.10412274 0.12145245 0.06356287 0.0035660372 0.120235726 0.17022957 0.13831255 -0.012571382 0.17819774 -0.12926657 -0.028253919 0.2228721 -0.04546805 0.07533523 0.15251689 0.034022167
49 -0.22217503 0.021271663 0.15396214 0.010233428 -0.07658499 -0.047759622 0.10801383 -0.094451874 -0.040946998 -0.026002327 0.009478174 -0.17185962 -0.011978606 -0.025279952 0.020907663 0.12141144 0.104915775 0.07388758 -0.07793175 0.22696304 0.10314025 0.19759022 0.086352766 -0.03070461 -0.036183693 0.044323444 0.06909736 0.02544589 0.23841225 0.16173112 -0.09536188 -0.041119885 -0.10343034 0.057038207 -0.14899474 -0.10182427 0.11544919 0.09746945 0.12852587 -0.049194116 -0.016010718 0.08874264 -0.07410671 0.073006526 0.031600893 0.014026386 0.17884119 -0.03997827 0.1379751 0.09191197 0.18410768 0.20944573 0.1671161 0.26502693 0.08258843 0.0071274387 0.031899042 -0.10432327 0.11201796 0.08391841 -0.13478364 -0.14151716 -0.067050576 -0.0324105
19 0.17382836 0.04121363 0.09398188 0.13352881 0.15197392 0.026034454 0.025831476 0.030098295 0.0020322858 -0.18969475 0.11623257 -0.21812525 -0.055748977 -0.0760739 0.046969395 -0.15352368 -0.024193915 0.024297014 -0.13512431 0.22894864 0.15326351 0.115518145 0.14754197 -0.123860225 -0.029901564 0.020249583 -0.01766561 0.025820594 0.14645675 0.0060545406 -0.0684553 0.0676366 -0.048922587 0.020114047 -0.19755836 -0.10751766 0.025858805 -0.1386386 0.16430013 -0.1214928 -0.0067408667 -0.016358286 -0.0032096535 0.0848294 0.16659647 0.04060379 -0.073652096 0.05242352 0.18213251 0.16625528 -0.06402792 0.013426689 0.021474432 -0.11082896 0.057282727 0.15130295 0.14814194 -0.019868914 -0.118293785 0.04789086 -0.20263794 -0.23021434 0.07761417 -0.15077382
51 0.15545823 0.10803488 0.0887495 -0.11152739 0.067217305 -0.15144126 0.044999357 0.0071120295 -0.046847977 -0.07312887 0.0687799 -0.029597878 -0.15038659 -0.04884056 -0.038006306 0.2481541 -0.12337623 0.0414674 0.021283904 0.24551384 0.12500036 0.1565617 0.043877672 -0.12729411 -0.12007053 -0.13057011 -0.19664514 -0.11160843 0.13704461 0.08534761 -0.17689498 -0.033893585 -0.13380009 -0.08354783 -0.20262524 -0.01401697 0.03932955 0.056165796 0.05575628 -0.068241216 -0.0480357 0.034432914 -0.010952709 -0.057467874 0.095672294 0.029554607 0.048683625 -0.115256764 -0.075630374 0.1566655 -0.07030044 -0.1263628 -0.05669338 0.23384963 -0.0020459595 0.12610607 0.05253029 -0.1429249 -0.017450608 0.0188343 -0.029149093 -0.15245283 -0.04569783 0.042322237
52 0.15038098 -0.14998631 0.16071114 0.08362773 -0.016947009 0.0055358736 0.1340591 0.026998106 -0.008192218 -0.066527806 -0.16687883 -0.18855038 -0.11416919 -0.103298455 0.028555261 0.06488625 -0.087657236 -0.0071952245 -0.0068078293 0.02722618 0.08325666 0.044352397 0.24273555 -0.063351676 -0.001327879 0.034480978 -0.04797564 0.05778699 -0.009039348 0.14798532 -0.17664286 -0.119281374 -0.05589104 0.060399685 0.05116966 -0.16076392 0.11056764 -0.11342046 0.19204299 -0.11537432 -0.040724933 -0.03742861 0.05768206 -0.00845165 0.117922515 -0.042402636 0.0014721024 -0.18285191 -0.0696516 -0.026241217 0.13746582 -0.14821213 -0.10215874 0.18359524 0.2375264 0.124458544 0.13643876 -0.044910226 -0.022442741 0.2231315 0.018324118 -0.061653953 -0.10197038 -0.048620887
35 -0.13542034 -0.13764763 0.06052632 0.016356418 -0.006745935 -0.10587171 0.20959942 0.10439866 -0.13828239 0.09480834 0.102850184 -0.032664813 -0.21089941 -0.05705589 -0.022926964 0.09816035 0.07609321 0.19182649 0.053154532 0.36865467 -0.054744825 0.15447034 0.14046434 -0.123100236 -0.034707196 0.08964342 -0.1268089 0.031555932 0.09701914 0.0022245657 -0.11809002 0.08179431 -0.1471895 0.05311335 -0.01744743 -0.025033617 0.16766249 0.050583594 0.19124651 0.027337234 -0.102655396 0.12970698 0.047870096 -0.02047964 0.017534161 0.1252144 -0.011164226 -0.06980862 0.036075924 0.18159306 0.0027107438 -0.108140156 -0.04724669 0.11373619 -0.016528819 0.0009117927 -0.048306726 -0.029516002 0.013928263 0.21558702 0.08193335 -0.23756933 -0.117871255 0.034984894
89 0.029524263 -0.10277226 0.09657981 0.21215136 0.09747074 -0.15530857 -0.060290687 0.08336876 0.06098328 -0.017205462 0.095237926 -0.08993492 -0.216333 -0.21054316 -0.052973717 0.05297673 0.142298 -0.034463674 0.16069628 0.19932067 0.13738513 0.12890269 0.061715893 -0.04755194 0.103523456 0.03723705 -0.15142852 0.042390566 0.1711155 0.23476127 0.12161066 -0.13339151 0.039171845 -0.0062442515 -0.19626251 -0.014237231 0.15687831 -0.19247276 0.13215286 -0.015931493 0.0036490988 0.087354764 -0.09380621 -0.0027296403 0.05160512 -0.17285956 0.06581727 -0.043315418 0.011640746 0.1892904 0.12598518 0.08897194 0.022230763 0.04758092 -0.0033239904 0.1248189 0.09518441 -0.09617008 0.052680418 0.098565005 0.033642128 -0.058952827 -0.08713799 0.12928256
72 0.030036852 -0.14957218 0.09997426 0.09706166 -0.22956234 -0.1422836 -0.06728452 0.13079114 -0.06586553 -0.05261421 -0.017278241 -0.052348435 -0.054273456 -0.18563157 0.14014502 0.053698964 0.002356577 -0.05283689 -0.045682285 0.09797943 -0.048174255 0.061128303 0.047093928 -0.0985822 -0.02260673 0.17216213 -0.049084146 -0.030565968 -0.06980168 0.04144516 -0.046664074 -0.0040639304 -0.03497486 -0.28900293 -0.0002409956 0.003255075 0.07901829 -0.10885471 0.21201219 -0.004043348 0.031956173 0.101727135 -0.18152271 0.13058881 -0.020973474 -0.15201592 0.087930635 -0.028633114 -0.012476793 0.051698465 0.26162484 0.031452537 0.17966215 0.24561353 -0.051818963 0.036034238 -0.034317452 -0.19174168 0.16761164 0.15863706 0.031436343 -0.1525761 0.005988197 0.08533366
92 0.021434283 0.11055341 0.12637371 0.13503866 -0.15036449 -0.16039808 -0.09585301 0.046368454 -0.115627766 -0.110895485 0.062693484 -0.10377542 -0.18092841 -0.138566 -0.095063545 0.09958643 -0.14241424 0.14343971 -0.1871008 0.021341298 0.21159823 0.10716254 0.114371456 -0.012251758 -0.112090334 0.042719003 -0.054866653 -0.058984827 -0.005309889 0.00094355416 -0.05166624 -0.030089289 -0.13175376 -0.25380626 0.052393194 -0.07452044 -0.07190412 -0.17206162 0.022767814 -0.064417474 0.021299925 -0.03179198 -0.019169321 -0.16207555 0.17042516 -0.08772326 -0.006802825 -0.046849135 -0.039585944 0.17597102 0.0030529785 0.05696052 -0.027348671 0.33491892 -0.1503957 0.10086181 -0.17400327 0.06386205 0.17359161 0.12617137 0.034084428 -0.10688693 -0.0031814268 0.17800747
59 0.1674545 -0.044800263 -0.018991467 -0.100830905 -0.107661426 0.05132826 0.05057131 0.18210636 -0.021438591 -0.041672125 -0.12040227 -0.14324157 -0.19794513 -0.26500678 -0.09655481 0.19032247 0.025576724 -0.05941129 -0.05687674 0.39906472 0.33743498 0.08074907 0.18813126 -0.04960972 -0.049547035 0.056097034 -0.1142548 -0.049746227 0.06849073 -0.17412367 -0.12664977 -0.017383303 -0.053512897 -0.118161276 -0.13981421 -0.038529895 0.052309893 0.033905316 -0.014628466 0.019434094 -0.048258733 -0.14306207 0.025451671 0.1423498 -0.05865868 -0.0872499 0.047332242 -0.08748858 -0.07401566 0.089002155 -0.00937041 0.023884984 0.06693653 0.042388245 0.15633364 0.060297254 0.109987326 0.08407044 0.014271533 -0.05123471 0.057791732 -0.18610336 -0.07730594 -0.03859393
27 0.017643576 -0.030720318 0.19557172 0.15793231 -0.024133826 -0.1944903 -0.077810444 -0.063821346 -0.13894089 -0.05587609 0.008125333 -0.32606965 -0.14597921 -0.11062973 0.030652698 0.07135312 0.16364305 -0.14120016 -0.0034681452 0.33146665 0.012930391 0.07025988 0.114223935 -0.108159296 -0.025429651 0.1613137 -0.0010870625 0.027507164 -0.089701444 0.060639232 -0.033732377 -0.117709875 -0.08099101 0.12399339 0.00025917368 -0.10454109 -0.15352859 0.03213719 -0.11224153 -0.015864238 -0.18492371 -0.012242609 -0.21466245 0.001705529 0.15587491 0.051715918 0.075753435 0.113744564 -0.09312735 0.051560663 0.017359799 0.009571311 -0.00011361256 0.086897716 0.057608634 0.16837822 0.18931673 -0.052812073 0.13149509 0.041427217 -0.030741142 0.009030033 0.20057379 0.055915445
88 0.03903215 0.03519716 0.21163519 0.08244935 -0.08171966 0.0009657714 0.18112053 0.047487386 -0.06185759 -0.06750015 0.15836379 -0.23444118 -0.07352079 0.044061475 -0.09204145 -0.11075477 -0.08179106 -0.0890064 0.049126584 0.19870502 0.08654767 0.088612944 0.11553853 -0.23640504 -0.10603284 0.17294605 -0.06927707 0.14648543 0.15668212 0.05287115 -0.13195668 -0.037379425 0.10318277 0.030351078 -0.035945803 0.018725611 -0.07463568 -0.010786023 0.007262592 -0.0013304456 -0.009605966 0.022697043 -0.033217672 0.06470369 0.10476677 -0.091679744 0.048586175 0.017352622 0.014043062 0.34098658 -0.017745512 0.14940564 -0.13208477 0.22941169 -0.0362359 0.052621603 0.030689456 0.006377641 0.20457779 0.07987312 -0.077741735 -0.0748168 0.05279899 -0.059429288
34 -0.018366266 -0.018729465 -0.07994066 0.12014073 -0.028832825 0.010504389 0.18074505 0.18357585 -0.12485289 -0.14147352 -0.070385836 -0.20191626 -0.21329677 -0.19719137 0.10592524 0.08677072 0.051818524 0.18082535 0.038367685 0.062836446 -0.011749685 0.057765316 0.09015943 0.04147277 -0.075465776 0.12342284 -0.109573476 -0.065093294 0.037374686 -0.2098902 0.08175078 -0.03477177 -0.20705283 -0.054829203 -0.15827744 -0.119178504 0.04273588 -0.05184635 0.0046652397 -0.11560754 -0.016371537 0.08840539 0.13226077 -0.09998626 0.025689611 -0.15139548 0.08858629 -0.10021482 0.026809411 0.045751452 0.14718676 0.21219084 0.044571288 0.23567623 0.13746302 0.07611784 0.12581998 -0.102179155 0.19590247 0.22929592 0.01613642 -0.2116196 0.0047703017 0.06726502
8 0.06065247 -0.0025978475 0.13416603 0.19081034 -0.12309617 -0.051492494 0.0038312192 0.034848705 0.020070983 -0.17565647 -0.20140752 -0.19334058 -0.08136732 -0.20320545 -0.10711296 0.10256949 -0.042739045 0.046252232 -0.14394587 -0.022453973 -0.02026156 0.05077488 0.09864564 0.016294701 0.031927347 0.14986171 -0.20123744 0.046078634 0.17408231 0.013390533 -0.019669456 0.02824509 -0.07966809 -0.06263251 -0.069650374 -0.32739866 0.12297822 0.005416001 0.05515521 0.06397237 -0.13851303 0.016473904 0.00615461 0.07988263 0.20313151 -0.16679361 0.1494002 -0.073837265 -0.042102374 0.0823856 0.035155628 0.06417567 0.11952722 0.11509967 0.11990354 -0.10296264 0.07546697 -0.11963294 0.115597464 0.14556952 -0.045797512 -0.03264676 -0.12692599 -0.10319155
30 0.20606856 0.14886944 0.061414722 0.08336737 0.029317359 -0.013057215 0.05902399 -0.028584085 -0.17526619 0.007554025 0.06680335 -0.1466663 -0.17422518 -0.056644276 0.14238364 -0.04528369 -0.1937803 -0.15127671 -0.0831387 0.25304312 0.124054484 0.16658922 0.04121728 -0.14200878 -0.13741882 0.107690044 -0.14679253 -0.06223984 0.08437502 0.061641138 0.06852628 -0.09332343 -0.021297244 0.091026925 -0.07153699 -0.36100382 0.09906544 -0.011508987 0.16230924 0.11772486 0.11608565 -0.13573737 -0.03573421 -0.065867 0.18245581 -0.13236694 0.12247346 -0.03908888 0.055606607 -0.075165786 -0.113628626 -0.02192892 0.10727951 -0.015796753 0.15156531 0.06561613 -0.051579583 0.10609425 0.19681115 0.031568743 0.021003885 -0.16125184 0.21475187 0.004131079
42 0.030710643 -0.082716 0.06682811 0.15999603 0.120498516 -0.087492146 0.031811118 0.08479423 -0.09790958 0.060507677 -0.035695452 0.0034837516 -0.09820963 -0.033358037 0.19247927 0.32909322 -0.06333969 0.045516115 -0.023711938 0.23720272 -0.121175624 0.096069016 0.17584652 -0.12402021 -0.021567456 0.0076169623 0.06571129 -0.064634904 -0.033428986 0.14924307 -0.1070346 -0.07310108 0.032388065 -0.0258494 -0.22795294 -0.13571545 -0.0656406 0.057221964 0.21131691 -0.16431147 -0.0025728098 -0.12632681 -0.1328865 0.03400597 0.18928811 -0.039878096 -0.1991316 0.05087092 -0.11359896 0.15673935 -0.021653434 -0.05378831 -0.03904062 0.29140556 0.037344135 0.14411296 0.12609825 -0.09826905 0.041855607 0.09439797 -0.07270128 -0.020409541 0.051059894 -0.04774098
56 0.18597886 0.110065065 0.22723688 0.0546495 -0.010895699 -0.047200806 -0.01293952 0.009668169 0.0066979406 -0.07705493 0.075182855 -0.19972578 -0.012748187 0.019840417 0.0038354003 -0.055350807 -0.08864263 0.16541049 -0.061097227 0.18065397 0.07408278 0.09107936 0.077520184 -0.13776197 0.016039426 -0.05985137 -0.018988615 -0.016297372 0.17317459 -0.019915238 -0.09847689 0.08131749 -0.06973887 -0.14673199 -0.09170461 -0.06404934 0.06839244 0.14481016 0.119843304 -0.1790112 -0.16226555 -0.04793999 -0.16539952 0.16224633 0.032601334 -0.10060161 -0.045291506 -0.10625462 -0.045273315 0.14189808 -0.08566209 0.0881116 -0.046831593 0.2417691 0.19749044 0.08761693 -0.07249881 -0.088301376 0.06622535 0.12499037 0.03400595 -0.13703609 0.0001905326 -0.07209588
84 0.02393685 -0.08992473 0.07924944 0.045661483 0.18849237 0.027090518 0.043866776 0.06594286 -0.11780433 -0.025231706 -0.15335695 -0.13707343 -0.2745132 -0.008614174 -0.04886923 0.05810041 -0.06870584 -0.063961744 -0.20593679 0.36961532 0.07616424 0.115034156 -0.0025348582 -0.12451882 -0.013428683 0.24710588 -0.036385715 -0.0406482 0.1066699 0.016485458 -0.0059142564 -0.03083012 -0.123113 -0.042970687 0.0074960943 -0.20437081 0.09648072 0.2313227 0.12478494 0.03935998 -0.14576033 0.0075985678 -0.08853977 0.009859861 0.06204484 -0.049446773 0.16711994 -0.04456381 -0.039477825 -0.03977708 0.06669477 0.0006949968 0.03720576 0.013714497 0.10502264 0.103107475 -0.0071436753 -0.2050228 0.0009603837 0.040825736 0.03056394 -0.21594095 -0.20534112 -0.020395147
24 0.17105247 -0.12931776 0.046472088 -0.10131307 0.056575727 -0.08765818 0.068041 -0.026755353 -0.07086747 -0.14825848 0.07076076 -0.20933789 -0.08541238 -0.1268768 0.087719105 0.045647766 0.074338704 0.07510568 0.18003115 0.16994952 0.13616864 0.07481453 0.23803316 -0.18616796 0.18278582 0.18412769 0.0013557039 -0.2405957 0.03256131 0.18611075 -0.099908285 -0.06202392 -0.014482147 -0.12811868 0.06610838 -0.021544078 -0.09115365 -0.11619999 0.061670016 -0.18354788 -0.07855506 0.04080198 -0.28503492 0.08236745 -0.04951203 0.057392843 -0.026057534 -0.03144874 -0.09382595 0.023938408 0.04161721 0.14785653 -0.04852333 0.055983342 0.040844217 0.0030628438 0.006201549 0.039877463 0.10392955 0.20071505 -0.08317188 -0.19969003 0.19023724 -0.089180425
31 -0.06625854 -0.032639917 -0.09766572 0.16559765 0.003650447 -0.031038644 0.048565567 0.18170765 -0.14760767 -0.028103493 -0.0052868407 -0.23407963 -0.16898237 -0.13091715 0.09601374 -0.034481186 -0.09741834 0.0011151425 -0.15724263 0.13935341 0.21878597 0.08115474 0.09493835 -0.08024082 -0.0010888801 0.013769312 0.20908609 0.15739223 0.11019914 -0.15781912 -0.09329696 -0.015915656 -0.0611425 -0.13805908 -0.100742504 0.0134449005 0.06633355 0.053788245 0.24780403 0.030710887 -0.168922 -0.038422808 -0.08003206 -0.09383947 0.16947748 -0.139582 0.06554628 -0.042140346 0.030771082 0.20048752 0.013904368 0.08735184 0.089538224 0.06253649 0.20070395 0.0831403 0.089859575 -0.08067634 -0.07916557 0.087189324 0.03657752 -0.07482395 0.03227869 -0.050027885
43 0.114961274 -0.043145247 0.10898445 0.029699806 -0.07903459 -0.19446102 -0.076194905 0.028778177 0.07242889 -0.16706306 0.22685179 -0.111911036 -0.00014514754 -0.13454759 -0.137014 0.03722515 0.052802917 0.022086503 -0.01049498 0.04668569 0.17589726 0.19660105 0.07513339 -0.030557131 -0.030155782 -0.022913747 -0.018633625 0.12071538 0.033553336 0.10538523 -0.17765817 0.055210266 -0.04049493 -0.15422885 -0.1265213 -0.11207273 0.11238488 -0.13943903 0.122224666 0.12836799 -0.005577556 -0.17373939 0.036119044 -0.12754945 0.23086546 -0.11278029 0.106493935 0.040710006 0.2386408 0.10076195 -0.1350004 0.15609549 -0.0881468 0.08376677 -0.086845234 0.13278435 0.18635473 0.027126228 -0.098651014 0.18345119 -0.111731686 -0.21338436 0.03979162 -0.10163086
58 0.08084016 -0.26405406 -0.24653524 0.16947381 -0.0028889086 -0.11365784 -0.095794514 0.19761087 0.048784517 -0.19526976 -0.046164118 -0.06927177 0.03468812 0.023467936 0.09061394 -0.035018716 -0.023022542 -0.038821917 -0.054769102 0.14247262 0.15036422 0.17331818 0.05563716 -0.23748851 -0.09524579 0.22901839 -0.08407432 -0.018612664 0.17176518 0.016177168 -0.3420429 -0.031059587 0.2245819 -0.04879943 0.052515127 -0.03285641 0.21297914 -0.091847435 0.12945314 0.028734887 0.019486398 -0.08668104 -0.15192926 0.08228315 -0.010060954 0.19785003 -0.03574314 -0.0781801 0.06490912 0.083986714 -0.023536183 0.08150341 0.056643944 0.25180265 0.009827297 0.09670045 0.05465713 -0.13927552 -0.019430043 0.29279575 -0.022836696 -0.083588086 0.012869526 -0.063954525
67 0.048198853 -0.012734506 0.1323259 -0.00011815848 -0.012528858 -0.12977768 0.003530607 0.07196178 -0.23303531 -0.069783725 -0.038729776 -0.05988919 -0.028912336 -0.22334191 0.04997249 0.20659815 -0.004437258 -0.05201197 -0.25535095 0.09520732 0.24301204 0.17544061 0.110137306 -0.07987444 -0.20882516 -0.0404171 -0.19734724 -0.15347145 0.13317764 -0.095932744 -0.23471923 -0.020348985 -0.09929975 -0.01221344 -0.051934097 -0.10868267 -0.156586 -0.06300126 0.12507513 -0.00036561984 -0.00028040181 0.07077961 -0.14029633 0.03411811 0.1385364 -0.013769387 -0.11572932 0.13493896 -0.046935543 -0.026249768 0.22531405 -0.0016079309 -0.019247549 0.048849173 -0.15672015 0.2620052 -0.007901315 0.02146591 -0.11926718 -0.03704275 0.13789468 -0.19006911 0.014032643 -0.020199047
16 -0.03578386 -0.040357843 0.10776016 0.16168115 -0.10105377 -0.14978437 0.13214634 0.002621058 -0.035696693 -0.0327639 0.055087566 -0.20472609 -0.026506733 -0.05336434 -0.034230117 0.17463183 0.043691292 -0.1781408 -0.0823966 0.06741247 0.093538776 0.038264338 0.15037347 -0.0849479 0.17725128 0.07374993 -0.026166236 -0.16680232 0.33643273 -0.007961907 0.050177924 -0.11032719 -0.13810909 -0.13726325 -0.039454866 -0.01760525 0.08287063 0.04549827 0.18247679 -0.100892946 0.101813085 0.10716845 -0.05799098 -0.05375616 0.08394285 -0.14080831 -0.20556061 -0.17052689 0.17566721 0.06461859 -0.036190968 0.06054209 0.26365915 0.27023053 0.049382124 0.06871113 0.069921084 -0.020642795 -0.16085392 0.120974585 0.04983122 0.018436668 -0.06417983 -0.059800673
4 0.04956832 0.039936334 0.03827995 -0.02093931 0.043453272 -0.13003534 0.26102686 0.045194723 -0.14587328 -0.07066802 0.08557726 -0.13575003 -0.2842429 -0.21617389 0.056326583 0.14661457 0.042179484 0.063772395 0.024424022 0.18264407 -0.070667915 0.28550702 -0.06151958 -0.08358252 0.102982014 0.13772924 -0.121174835 -0.06359852 0.018429292 -0.09115352 -0.1805421 -0.0028728028 -0.18591015 0.16989252 -0.23117082 0.036303326 0.03970763 -0.033425856 -0.08322551 -0.02524326 -0.07441414 -0.022058487 -0.22543769 -0.19891694 0.09405114 -0.09887964 -0.008588633 -0.14286315 0.22531155 0.17813821 -0.03180566 -0.019717017 -0.012600163 0.12855041 0.00030584144 0.1143757 -0.11665569 -0.044198155 0.06618114 -0.004038466 -0.0028566993 -0.027963692 0.040906485 -0.15560228
0 -0.03773263 0.03774635 0.15654656 0.16416992 0.08421374 -0.09942579 0.113866195 -0.01632533 -0.09806481 -0.16769448 0.10631164 -0.18483146 -0.11526954 -0.053478707 -0.1646742 0.02060159 -0.039345995 -0.10270908 0.044544574 0.088972576 0.27351904 0.010400553 -0.035035264 0.09701157 -0.05052086 0.083819054 -0.2898256 0.029910749 0.029777806 -0.055976395 -0.16405019 -0.06812598 -0.08291733 0.09779227 -0.022479253 -0.12721577 -0.11041018 -0.11461849 0.06274369 0.113408156 -0.08512794 0.28298837 -0.0625863 -0.0077849426 -0.024732573 -0.0043597715 -0.16617116 0.1467891 -0.16351978 0.22137454 -0.12215884 0.041550286 0.09370756 0.12389618 0.06802116 0.15318538 -0.10184831 0.07843269 0.11624503 0.24173735 -0.13957067 -0.118051305 -0.043616433 -0.031974584
68 0.028887423 -0.038503863 0.120416746 -0.010653124 0.020878082 -0.15991835 -0.08857591 -0.081602976 -0.09738842 -0.04361169 0.08000171 0.054688808 -0.1886695 0.023506448 0.000825721 0.06230402 -0.04580815 -0.19505128 -0.210406 0.03633055 0.17276396 0.12726712 0.06914483 -0.28855026 -0.0061742854 0.0641398 0.105006605 -0.052615725 0.1105062 -0.038351923 -0.09086492 -0.15947942 -0.1639294 -0.05441764 0.099386595 -0.17865549 0.0966883 -0.04085979 0.13807037 -0.12383552 -0.1566119 0.052281577 -0.15098733 0.10182325 -0.10072027 -0.009824791 0.11160936 -0.073822096 0.0347736 0.26918995 0.09254778 0.14276479 0.15029375 0.120868675 -0.006023521 0.25296605 0.037364215 0.019138828 -0.00028602412 0.25206643 0.00012428133 -0.16806804 -0.039979648 0.061425276
63 0.115790576 -0.03486283 0.12972702 0.30866092 0.08320325 -0.22939704 0.07151222 -0.016058046 -0.081671745 -0.012463748 -0.013570444 -0.23783256 -0.1042071 -0.03752165 0.018572072 0.1726812 -0.13460736 -0.1828119 0.1251094 0.20422198 0.1740942 0.15234618 0.28288698 -0.018168254 -0.10409138 -0.13750997 -0.00936967 -0.08977172 0.19886327 -0.0028111497 -0.23982573 0.057050355 -0.14539686 0.045896325 -0.091138594 0.04943338 0.07391331 -0.08467576 -0.00759532 -0.020377966 0.07817393 -0.1244838 -0.005576316 0.02409408 0.05105296 -0.07207045 -0.10014904 -0.020219658 0.04789859 0.08203944 -0.060348604 -0.086702175 0.21002826 0.16463658 -0.034030758 -0.11568261 0.033206165 -0.21785104 0.15722941 -0.027001947 0.09619151 -0.03550893 -0.13764669 -0.19377011
20 0.15572497 -0.17789768 0.23743011 0.05157908 -0.03316296 -0.05635337 0.16275118 -0.05926821 -0.04747922 0.08088401 0.030205904 -0.1516335 -0.1283363 -0.057106227 -0.060531832 0.20366336 0.11120787 -0.15068948 0.121721074 0.0753514 -0.013460046 0.16005798 0.0690208 -0.079712644 -0.19164774 0.14375152 -0.103401914 0.08407925 -0.006895592 0.052237123 -0.027375042 0.11311939 -0.0012451698 -0.049500093 -0.17473644 -0.0030112928 0.08672334 0.050551847 0.1757514 -0.20227519 -0.26043049 0.105728015 -0.11541986 0.08554216 0.014396283 0.038858563 -0.12920372 -0.09157516 0.13220793 -0.005156519 -0.014935369 -0.13490231 0.17146471 0.26630875 0.14813083 0.14434524 0.17386335 0.25307325 -0.15414259 0.09955754 -0.086197965 -0.05416507 0.03045105 0.09262172
75 -0.113610685 -0.011203645 0.029939355 0.016542172 0.06185141 -0.09715755 0.27062225 -0.13366367 -0.26453865 -0.26042226 -0.0048054177 -0.025672399 0.015059066 -0.09729844 0.1655107 0.045426086 0.09778989 -0.032548424 0.08897768 0.3406105 0.25135222 0.06178148 0.11970343 0.031034814 0.093131974 0.3179321 -0.13064145 0.05492583 0.013048643 0.16727279 -0.031963218 -0.1621815 -0.021442628 -0.07308842 -0.045193367 -0.052727908 0.059800077 0.021592353 0.12474762 -0.07401296 -0.064349055 -0.04287791 -0.015332656 0.29438847 0.29478714 -0.021464001 0.064604804 -0.092712216 -0.011837611 -0.048087414 0.03471005 -0.03349392 0.06624237 0.086979896 -0.041912407 0.10071336 0.09757866 -0.052668545 0.09642784 0.030510917 -0.058592625 0.013297681 -0.009321787 -0.01923496
53 0.072708584 0.007215697 0.043134883 0.061498515 0.06618912 -0.0496469 0.07217435 -0.07299308 -0.15417528 0.14846997 0.0028160482 -0.20052809 -0.23021954 -0.025702305 0.0087827435 0.16186705 0.0323628 -0.019958679 -0.121791154 0.027448801 0.18795502 0.06505962 0.08418079 -0.17173392 0.016908413 -0.027393263 -0.33891425 0.12425423 0.22543226 0.203313 -0.122742765 0.03953238 0.23916735 0.037998274 -0.1920106 -0.017484456 0.18042707 0.025608722 0.01592501 -0.07969301 -0.202669 -0.033900473 -0.051774982 0.0406217 0.13691758 -0.12477256 -0.12141106 0.015282707 -0.12077375 -0.06471529 0.09451551 0.1550109 0.017743785 0.06721458 0.016221005 0.25033972 0.053146552 -0.12153947 0.26082298 0.076209195 -0.004674919 -0.06955371 0.07707287 0.031365216
73 0.1657297 -0.045394316 -0.06627264 -0.15110844 -0.040480245 -0.35095495 -0.0009065404 -0.041518744 -0.08150613 -0.03680627 0.05549003 -0.31189597 -0.04999098 -0.20313835 0.17886269 0.0070430418 -0.10131861 0.07092491 0.15443775 0.26493028 0.13896732 0.102653734 0.19115703 -0.18228321 -0.11262497 0.073669866 -0.14550096 0.063686535 0.172925 5.952213e-05 -0.21496253 -0.05612099 -0.05797897 -0.10819977 0.03620434 -0.10517723 -0.054259863 0.04713145 0.1426172 -0.13388313 -0.28120083 0.041923095 0.06314155 -0.13633509 -0.118957266 0.101834364 -0.17354797 -0.15277971 -0.05012667 0.014797344 0.034047086 -0.042446084 0.017863818 -0.047873482 0.03977466 0.03269125 0.16578493 -0.05206864 0.230074 0.13056049 -0.1023109 -0.027807025 -0.091189645 0.10599962
99 -0.019291142 0.0045378525 -0.052838914 0.22243774 0.03964759 0.11096209 0.16338149 0.1822457 -0.076537915 -0.07850256 0.02366063 -0.21898007 -0.22626382 -0.06687106 0.04989017 -0.06495094 -0.0032387164 0.03608187 0.08120831 0.09686652 0.18163195 0.21420206 -0.018503878 -0.114557415 -0.10195548 0.17311767 -0.11444819 0.25003093 0.14152491 0.30953103 0.008235701 0.0239479 -0.1100312 -0.21317174 -0.11835125 -0.15451042 -0.18539676 0.034094643 0.14560345 -0.041671164 0.017671604 -0.0763044 0.054930784 0.25978357 0.16193146 -0.15423492 0.057835054 0.11882963 -0.05583125 -0.009691896 -0.12334297 0.00088250084 0.12841703 0.046893902 0.024420366 0.13392894 0.01627457 0.1679903 0.024290916 0.2114022 0.06101549 -0.08066796 -0.1169737 0.09843365
90 0.0826169 -0.19657737 0.2613195 0.20313556 -0.10007657 -0.25719476 -0.16237146 0.062458154 -0.098746344 -0.20281108 0.011177632 -0.09408814 0.056910694 0.035058685 -0.025507774 -0.065258384 0.07600117 0.09797849 -0.12563826 0.07896915 0.3259889 0.086266614 0.05248943 0.047500666 -0.014199 0.03917186 -0.16737977 0.1532006 -0.053215146 -0.13307978 -0.05257041 0.18624674 0.0020536075 -0.090433486 -0.07040592 0.027225245 0.14777972 0.04306219 0.12882172 -0.0828154 0.0023697882 0.12846017 -0.049306158 0.056572124 0.06801152 0.016115261 0.049014267 -0.030900538 0.16405016 0.09317373 -0.10557487 -0.024043484 -0.01245039 0.15476654 0.047993723 0.24888225 -0.055832937 -0.14150336 0.029613174 0.12975118 -0.07587964 -0.1531977 -0.038906056 0.10629979
29 0.22338483 -0.1402596 0.04233063 -0.096524775 -0.053383674 -0.14300847 0.038192086 0.088962495 0.0011325824 0.007539961 -0.040522322 0.123502135 -0.07570955 0.09211445 0.035064142 0.16289376 0.054444898 0.008237127 -0.118915014 0.22237754 0.27027044 0.0039396035 0.24750505 -0.07032552 0.22237587 0.07979772 -0.19781037 0.060929872 -0.029579055 0.0119555425 -0.18800694 0.010946926 -0.117658794 -0.1530836 0.013589474 -0.28837645 -0.00026786677 0.13777521 0.052727245 0.13598125 0.00879705 0.08405166 0.02402779 -0.09979682 0.023043608 -0.17948532 -0.030634139 -0.030387694 0.01744244 0.12802637 0.10432558 0.036166362 0.05835066 0.10610268 0.074610315 0.13165791 0.14319776 -0.12127848 0.124227725 0.08082334 -0.14320557 -0.23896682 0.14608414 -0.1551071
26 -0.028068203 0.12324555 -0.021961808 0.0769948 -0.078814745 -0.24595387 0.1546115 -0.03498497 -0.08836604 -0.08632228 0.105486855 -0.14681809 -0.01769303 -0.16737415 -0.0009518827 0.083566636 -0.07038273 -0.023401188 0.087521575 0.20135824 -0.02296568 0.019268246 0.08146557 0.06895613 0.09168091 -0.14259617 -0.04669109 -0.13224909 0.18123892 -0.025719542 0.11820126 -0.0025335068 0.10925167 0.089197725 0.032201383 -0.0830394 -0.05893028 -0.09928907 -0.00502193 -0.021223092 -0.10835165 -0.060197506 -0.060564075 0.15820369 0.25406748 -0.17636979 -0.092782214 -0.008020666 0.0683087 0.2234642 0.03034193 -0.19499215 0.12021481 0.22090672 -0.027484642 0.14933263 -0.051279742 -0.08447342 0.10719617 0.27446368 -0.25766897 -0.289717 0.0775208 0.043564
61 -0.010623416 -0.008408399 0.035108272 -0.08066132 -0.057477854 -0.18907605 0.07475188 0.1299588 -0.06256093 0.107444584 0.010071984 -0.24331594 -0.0093291765 -0.14144927 -0.038609706 -0.09989767 -0.00479663 -0.031000325 -0.11702159 0.2375413 0.14318204 0.1712015 -0.025454342 -0.019771827 0.079643786 0.018216077 -0.22008972 -0.12151464 -0.088293605 0.01828801 0.013424446 -0.1254138 -0.040327173 -0.0048551615 0.08555649 -0.102460824 0.010692313 0.03311443 0.09328698 -0.29136553 -0.22266988 -0.17178185 -0.15535368 -0.19542323 0.023530327 -0.0038131792 -0.101735935 -0.043785855 -0.12163429 0.1638108 -0.027260866 0.14566159 0.12831098 0.06900837 0.08344967 0.40802008 -0.10540233 0.018205091 0.12215595 0.25849104 -0.040947914 -0.002364389 -0.10350843 -0.19465242
78 0.01594831 -0.0070007592 0.102287665 -0.08246532 0.027214305 -0.12885208 -0.12505625 -0.025961937 -0.011914937 -0.043953404 0.12852941 -0.09664387 -0.30404818 -0.10320501 -0.014956472 0.095465 0.052160237 0.052937567 -0.00609468 0.2168768 0.18706515 -0.08517758 0.25282338 -0.10173799 -0.11820314 0.07534402 -0.04678898 -0.11408403 0.124423966 0.027300712 -0.2688915 0.017262781 0.010166693 -0.064533666 -0.07215912 0.012312588 0.03329431 -0.04081808 0.035845265 0.10023992 -0.03066802 0.0059168674 -0.26810196 0.11106592 -0.062080767 -0.28530142 0.09453304 -0.044433985 0.055974312 0.07160087 -0.06733471 -0.00028493057 0.22721976 0.11934589 0.12613128 0.07729949 0.24380739 0.03005836 0.0552863 0.10439365 0.12287142 0.045326963 -0.11148695 -0.07483558
97 0.10353224 -0.05743234 -0.07614188 0.2058336 0.004007361 -0.16390593 -0.101219624 0.05270467 -0.06505255 0.031003656 0.01656283 -0.042831745 -0.02594885 0.029681794 -0.0013749741 0.24277772 0.25082543 -0.09208829 -0.16884302 0.29947767 0.13913128 0.2150446 0.20216464 -0.16380125 -0.12527429 0.1670227 -0.28757113 0.10378784 -0.030955318 0.066309765 -0.11425757 0.056459557 -0.062119372 -0.110187486 -0.071910255 -0.16735083 0.07350876 -0.17332046 -0.014046373 -0.03687665 0.0030211257 -0.0075302063 -0.09072254 0.039602853 -0.050137576 -0.011301736 -0.017697124 -0.0045548202 0.016881568 0.055144466 0.10631278 -0.16709784 0.1390593 0.13041502 0.031105848 -0.037662406 -0.092212394 0.12364292 -0.15996602 0.11991104 0.045648962 -0.16606823 -0.02384965 0.0045828186
12 0.048119348 -0.15397477 0.35928148 0.06259585 -0.03291881 0.015060791 0.04493675 -0.06863675 -0.0066532837 -0.16331057 0.03435314 -0.16885078 -0.20317107 -0.16082014 0.018435393 -0.16938429 0.22531828 0.17053501 0.026934763 0.22319344 -0.044556957 -0.0027351815 -0.009839389 -0.08021156 0.0023222049 0.20664845 -0.106008954 0.045185346 0.13007778 -0.09377056 -0.16145244 -0.06377429 0.07224022 -0.15241948 -0.06881114 -0.08138276 0.13137533 0.09151517 0.21072485 0.14871925 -0.25139394 -0.081722386 -0.044789013 0.14349885 0.12072916 -0.032784734 -0.005192451 0.02424203 0.052750975 0.14200372 -0.16704117 0.040621217 -0.009550492 0.059086736 -0.11250203 0.17483301 -0.17235506 0.1331462 0.08838043 0.13837631 0.072117515 -0.11043479 0.06799578 0.03536545
13 0.016592287 -0.024906805 0.27395692 0.017568178 0.0643503 -0.026881667 0.12706687 0.15884575 -0.18538329 -0.03797466 0.06817434 -0.23993184 -0.19362515 -0.10878651 -0.146309 0.08524623 -0.09336827 0.074288644 -0.2740259 0.040311977 -0.05613123 0.021547753 0.01586904 -0.16741516 -0.039061777 0.03962333 -0.17480406 -0.050941527 -0.19419788 0.016562557 -0.05886557 -0.09399517 -0.16044797 -0.05199028 0.049009643 -0.04573315 0.16436324 -0.06127373 0.17302366 -0.24624673 0.034069248 0.07596956 -0.19343783 -0.01110892 0.13191608 0.026509695 -0.0010699263 0.17465314 0.031792704 -0.11472291 -0.1447146 0.055343535 -0.018617285 0.09043162 0.108318396 -0.13179766 0.00024859462 -0.06518879 0.036963724 0.16903366 -0.122878164 -0.27076483 -0.2565477 -0.15281731
5 0.084895246 0.09985739 0.059294645 0.004598017 -0.16962536 -0.0530041 -0.061411932 0.016009005 -0.15402684 -0.23788095 -0.03537191 -0.17441215 -0.2222431 -0.09364735 -0.0032624197 0.022875603 0.036294017 0.03699172 -0.034042932 0.057540778 -0.04715406 0.10887833 0.14118378 0.08913276 0.08162017 0.040079266 -0.07791875 -0.061065402 -0.019695155 -0.17543237 -0.08867417 -0.034411043 0.053058773 -0.07882295 -0.20342577 -0.16942047 0.106395364 -0.008683345 0.1712728 0.005928774 -0.0022606873 0.020526355 0.021766493 -0.042024072 0.15514736 -0.052731376 0.08585411 0.016685782 -0.013936207 -0.00075353566 -0.04146573 0.050174654 -0.15995938 0.0907863 0.106366575 0.19229542 -0.019835373 -0.21166101 0.058840204 0.27966058 -0.114252776 -0.19035362 0.015241291 -0.08424854
40 0.08588379 -0.18887125 0.18359432 0.05281895 -0.09660791 -0.24748735 0.16455548 -0.07022836 -0.052013136 0.018489785 -0.059046187 -0.33694965 0.11781736 -0.0063749123 0.2127474 0.0105878 0.016182344 -0.10231482 0.046437953 0.22411865 0.0768228 0.03350582 0.13402201 -0.2864843 0.07547738 0.11976032 -0.3326954 -0.06542291 0.15801054 -0.01596736 -0.034516018 0.10259177 0.0011943836 0.05915727 -0.0098435525 0.085473016 -0.05438185 -0.09854925 0.14585471 0.08239701 -0.018344471 -0.13354914 -0.14057142 0.060648993 0.10893592 -0.10445418 -0.06635772 0.09111477 0.00020328567 0.083958834 -0.19953424 -0.08105269 0.016527409 -0.12945168 0.09340431 0.1362372 -0.17374776 -0.0866771 0.03316646 0.08409899 0.1072895 -0.20574078 -0.005988631 0.01840038
9 -0.040677924 -0.2421062 0.23485099 0.0028617787 -0.039438214 -0.058919933 0.08129852 0.15506057 -0.05086867 -0.08255723 0.21801434 -0.09587497 -0.04138559 -0.0634919 0.13638808 -0.018392468 0.16243306 -0.13049978 0.06686931 0.22057036 0.19535984 0.080617726 -0.051303886 -0.13505767 -0.09446941 -0.12773882 -0.14192446 0.10279632 0.03910321 0.07267959 -0.14985149 0.14450769 -0.2055384 -0.21122327 0.03842389 -0.055080812 0.045396987 -0.07928601 0.22826646 -0.07940849 0.103443354 -0.03571044 0.09536243 0.051394608 0.24117199 -0.027139751 0.019225573 -0.1741822 0.1682049 0.06527488 0.30121487 -0.039190274 -0.11815923 0.041226495 -0.023550186 0.102903426 0.024986392 0.12510231 0.20757642 0.08638982 0.01647224 -0.1309034 0.027939187 -0.010018523
7 0.007329912 -0.066885546 0.0023002145 0.024153529 0.28136605 -0.13231643 -0.103499524 0.023871643 -0.17031176 -0.16748422 0.029845415 -0.011283277 -0.10831182 -0.345184 0.032383107 0.027575806 -0.040173598 0.08011224 0.049369857 -0.00645826 0.21405403 0.32984108 -0.03705452 0.019968234 0.10247617 0.21076335 -0.082883276 -0.008285641 0.21547928 0.07969706 -0.19210862 0.0049933293 0.035572626 -0.008273798 0.02822917 -0.0030625793 0.013061501 -0.06488656 0.1428959 -0.021293437 -0.010143575 -0.15160623 -0.110180475 0.0480372 0.2512848 -0.037084777 0.0822254 -0.04421221 0.11235924 0.09550268 0.19017972 0.019845853 -0.11226771 0.20119523 0.178739 0.07432017 0.07214424 0.0040105176 0.06547626 0.09103969 0.11018995 -0.011169635 0.07721887 -0.017922059
2 0.023774398 -0.14102721 0.13857472 0.038684893 -0.39232782 -0.11060689 -0.01968326 0.09572095 0.057561584 -0.1336023 0.04443904 -0.09605528 -0.15092315 -0.12866238 0.09831005 0.16796482 -0.15631208 -0.13543859 -0.0357349 0.06340961 0.16334315 0.14280461 0.03988908 -0.1504836 -0.09459299 -0.061837733 -0.14127408 0.05340446 -0.0062527424 0.3200004 -0.034813605 -0.13303995 -0.0034603924 -0.06977998 0.09423153 -0.07565888 -0.04909927 -0.14218402 0.18308863 0.068044975 0.032382254 0.011660194 -0.026572637 -0.022522828 0.075264394 -0.11694356 0.17888795 -0.14310193 -0.035657372 0.0384411 -0.037778847 0.07522379 -0.07763608 0.096403874 -0.002641211 0.1782582 0.0479382 0.005533888 0.13263062 0.09699256 -0.21629809 -0.119706824 -0.15633953 -0.11554035
18 -0.04014114 -0.11351899 -0.0028317007 0.07484171 0.01798462 0.02686066 -0.066485524 -0.01893529 -0.36337054 0.12646392 0.112456225 -0.010116974 -0.16950724 -0.16026749 -0.16148572 -0.09880588 -0.2041918 0.15257439 -0.007067929 0.19498846 -0.015018191 0.21321398 0.07308883 -0.11775906 0.014766366 0.040308252 -0.06306862 0.10688503 -0.047739442 0.14939092 -0.25035208 0.15298155 -0.15456603 -0.10863413 -0.0038905665 0.048462898 -0.090378195 -0.054939214 0.2545992 0.14042999 -0.12446572 0.10573328 -0.067509666 0.07041099 0.15684879 -0.043714017 0.16687207 0.05627548 -0.23855987 0.13092384 0.06523874 -0.070076995 0.19374254 -0.002979178 0.17166874 0.17335057 0.067530185 -0.16213824 -0.049238853 0.15973087 0.039011143 -0.14808463 0.017807297 -0.1646498
60 0.086045116 -0.036408897 0.1445394 0.27065402 -0.062943175 -0.10078533 -0.0073292246 0.11302257 -0.02862127 -0.15442204 0.013982736 -0.19188102 -0.26292685 0.0060693524 0.0022069507 0.24357818 -0.0864269 -0.0365928 0.12730958 0.1412673 -0.117444046 0.10215124 -0.097316034 -0.0148080485 -0.06817425 0.06895538 -0.02463515 -0.2836633 -0.12690271 0.06066145 -0.20734572 0.074636124 -0.08248842 -0.06517864 0.0775235 -0.2943893 0.07175151 -0.06905229 0.21058038 0.09483098 -0.07942525 -0.049320687 -0.058381032 0.20436007 0.006606479 -0.076725885 -0.22082683 0.058905106 0.0009296415 0.061158523 0.033405814 0.13140032 0.25260678 0.10786927 0.062961966 0.18623391 -0.06624623 0.10698401 0.1613453 0.13407822 -0.11296693 0.07784525 0.18945107 -0.08538531
79 -0.16245002 -0.100961894 0.107259445 0.03903242 -0.1882904 -0.19085099 0.07590947 0.16297893 -0.05963418 0.046898913 -0.051646255 -0.09521426 -0.118590936 0.101250276 -0.019299556 0.2604729 -0.07852275 -0.1117979 0.06639035 0.21156177 5.4063457e-05 0.03411191 0.22032072 -0.0018648569 -0.0349854 0.1880876 -0.13291848 0.23784207 -0.05355048 -0.05237472 -0.23104385 -0.026319856 -0.17043588 -0.11176371 -0.15340275 0.095651925 -0.0061640516 -0.08853559 0.20717542 -0.12357575 -0.037917648 0.091272 -0.23086587 -0.14995995 0.080422595 -0.03060145 -0.019428955 0.012765571 0.11730715 0.026599329 -0.11231519 -0.110442564 -0.06243898 0.09209193 0.09123507 -0.07878903 -0.10276821 -0.15223882 0.26006952 0.111961365 0.01653822 -0.2245726 0.067492746 0.19894359
14 0.009457877 0.030018104 -0.021268753 0.18211344 -0.19373488 0.07422005 0.13254455 0.02584594 -0.06633822 -0.065309525 0.09712903 -0.22970004 -0.11743593 -0.1505295 -0.0732596 0.12036748 0.13469997 -0.07324035 -0.012007088 0.18429998 -0.033920188 0.004752806 -0.00985574 -0.07446954 -0.036854528 0.16956404 -0.23218884 0.1884542 0.21419871 0.20884912 -0.024962058 0.013654964 0.024767613 0.016561557 -0.010091354 -0.009089708 0.03171272 -0.057179365 0.05027525 -0.12610973 0.15407307 0.025566537 -0.030066982 0.06967154 0.1287958 -0.084074944 -0.06274301 -0.17297736 0.0058291107 0.06414132 -0.04642707 -0.08982778 0.035602055 0.17708804 0.22685318 0.24363798 0.007506111 0.042983606 -0.14188573 0.034752134 -0.06550474 -0.2135532 0.19159779 -0.0010695774
81 -0.077550665 -0.011614811 0.14497432 0.08640327 -0.06881182 -0.2916181 -0.13519637 0.18151651 0.055389915 0.04069421 0.014682832 -0.118744634 -0.14786233 -0.05197782 -0.071015015 -0.07337637 0.040882528 -0.05663102 -0.16639219 0.25531447 0.1403419 0.024852507 0.19814219 -0.023306636 0.10611031 0.09135955 -0.19855803 0.12483634 -0.10394825 0.0008845036 -0.068635434 0.00059278304 0.063101746 -0.06748745 -0.21738598 -0.014311732 0.1680776 0.06261887 0.25042227 -0.3224369 0.056263328 0.031605486 -0.16100954 0.12902167 0.16767426 0.00796954 -0.10017569 -0.024126817 0.11325123 -0.0729783 0.18553469 -0.23815699 0.10119929 0.029859029 -0.033356853 0.13127142 -0.07125409 0.12320273 0.098357014 -0.025924606 -0.22305313 -0.096516766 0.17870495 -0.034052547
98 0.08536432 -0.008750528 0.01295488 0.07646498 -0.15768719 -0.06551277 -0.03435823 -0.057908602 -0.14916553 -0.18010026 0.034488056 -0.3520829 -0.29249504 -0.0125021385 0.05586391 0.09556453 0.06292865 0.032419663 -0.0281877 0.104174204 0.16275534 0.25947145 -0.17567387 -0.021219054 -0.056738347 0.047302812 -0.029338557 0.039900184 0.23901437 -0.039987966 -0.12735137 0.02300998 0.060189847 -0.13769563 0.028114934 0.023604607 -0.1834871 0.04156749 -0.077591784 -0.048122495 -0.01404007 0.120525874 -0.22167408 -0.050516397 0.08449164 -0.02437513 -0.043070365 0.071021594 0.12257468 -0.06569874 0.02147312 -0.028708452 0.056955118 0.09077461 0.18159342 0.02011093 0.013019175 -0.10388273 -0.15314943 0.19720708 -0.122716025 -0.1952257 -0.058545522 -0.03165383
41 0.11825441 -0.17722054 0.19959359 -0.015107446 -0.024013333 0.15713783 0.047507767 -0.0953546 -0.14572813 0.043705635 0.030706057 -0.119487755 -0.09436876 -0.20164502 -0.07493267 -0.102157496 0.050640587 -0.02347606 0.02537595 0.1505705 0.06357762 0.076630875 0.03520803 -0.21830422 -0.055577032 0.08834685 -0.27423152 0.077913955 0.04906453 -0.0051671183 0.10343512 -0.118080124 -0.22417913 -0.17976339 0.1575307 -0.1662394 0.21689355 -0.09354588 0.0974041 -0.030508043 0.13997884 -0.12231107 -0.01905343 0.10857112 0.09795961 -0.007994561 0.060501676 0.017928451 -0.012791056 0.17165163 -0.02017064 -0.079448566 0.13063093 0.112630375 0.084664226 -0.13795531 0.22557394 -0.064205706 0.19457084 0.14869547 0.0028684596 -0.24549825 0.2436855 0.055782292
62 -0.06397792 0.064849295 0.14139584 0.29940248 -0.06918939 -0.10154097 -0.038049065 -0.14501497 -0.12097652 -0.10114164 0.27541998 -0.16107757 -0.096386686 0.12585178 0.029019529 0.13386105 -0.1393591 0.088976495 0.15455452 0.34395915 0.21394506 0.087806575 0.052741364 -0.102342285 0.021435184 0.09951566 -0.20334432 0.015344641 -0.08689054 -0.0036814115 -0.072011106 -0.09234595 0.16439004 -0.06776424 0.070053264 -0.04916496 0.052856326 -0.2904215 0.0024481267 -0.052353006 -0.2258655 0.08038438 0.03762563 0.00091456104 0.04886335 -0.21277036 0.06442753 -0.049914464 0.09584789 -0.12571795 0.08207391 0.03137626 0.15202162 0.057413887 0.022676934 0.13438684 0.059959248 0.04993714 -0.11929011 0.21730894 -0.07601889 -0.05779772 0.005713319 -0.031606887
95 -0.0070603853 -0.20368063 0.12050964 0.17928097 0.0422377 0.013549297 -0.0981732 0.11383548 -0.19766884 0.2177765 0.16991492 -0.0873176 -0.13855259 -0.004253702 -0.09708936 0.0035579752 0.043378778 0.021889048 0.09998997 -0.014985291 0.12123872 0.19380563 0.17213884 -0.17461088 -0.07574499 -0.060715884 -0.09233675 0.16940463 0.09825888 0.13820568 0.11070864 0.028380074 -0.11103123 0.025014864 -0.12256331 -0.16841327 0.069296695 0.11298367 0.058373068 -0.009270721 -0.20592804 -0.04970222 0.009484684 -0.08647106 -0.035521377 -0.09484735 -0.020442398 -0.221468 0.017953422 0.20639113 -0.07594509 -0.12789671 0.09089247 0.22904284 0.13183437 0.05244215 0.09310066 -0.097326316 0.06841203 0.23212278 0.07113681 -0.2815875 0.05017789 -0.15907654
76 0.06475499 -0.1657587 -0.096640736 -0.09097442 0.01905027 -0.21123303 0.11077987 0.04878418 -0.26372582 0.110539325 0.16622575 -0.33017692 0.03043061 -0.046015292 -0.20882484 0.01753309 -0.13570955 -0.0106667755 0.036864605 0.14072894 0.07119433 0.19430538 0.06050622 0.12234489 0.0888559 0.15508758 -0.10243911 -0.0355166 0.1579369 -0.0338426 -0.09222807 0.08793286 -0.13325068 -0.27500737 -0.047637798 -0.23629968 0.12336812 0.067919776 0.15972097 0.07332969 0.25711015 0.011883691 -0.07489371 0.041696504 0.30301988 0.057426833 -0.32428363 -0.108661175 -0.11713667 0.0770776 0.096818425 0.043963004 -0.032048415 0.028073821 -0.009819202 0.024998523 0.010452335 -0.0374379 -0.120970614 0.21118215 -0.09819174 -0.07256537 0.09255608 -0.052815005
96 -0.08467667 -0.05516964 0.06858244 0.18753985 -0.041319814 0.003525533 -0.09207245 -0.19180517 0.013262001 -0.0761885 -0.031077426 -0.16236626 -0.035494342 -0.0013001759 -0.23116426 -0.071530834 0.16982685 0.05600167 -0.05080936 0.13957019 0.31902596 0.17608504 0.16495167 -0.16450246 -0.08521898 0.076855235 -0.10734872 -0.06146665 0.051052846 0.195643 -0.05806489 -0.08721564 -0.23309515 0.007657364 0.04958468 -0.041532367 -0.0326755 0.096275076 0.12806925 -0.19918314 0.06219791 0.030881055 -0.15507069 -0.24971981 0.12513913 0.041198105 -0.09569352 -0.011708058 -0.14409854 0.15459645 0.013210135 0.013246934 0.1696943 0.11539728 0.099418454 0.11705605 -0.06785677 -0.052778896 0.07661041 0.029283004 -0.15010147 -0.22335353 0.13488081 -0.11129829
17 -0.09476444 -0.030674819 -0.033891156 -0.05371646 -0.154186 -0.2411904 0.067175575 -0.0009593089 -0.13844265 -0.20249137 0.07003504 -0.2618056 -0.1969201 -0.16582792 -0.07504139 0.11523377 0.034529157 0.04729011 -0.11787861 -0.1631435 0.052402474 0.023506679 0.14178526 -0.21474417 -0.0367286 0.06743268 -0.030783644 0.0236709 0.3074318 0.029084882 -0.20263512 -0.02957301 -0.0759315 0.10274782 0.0016318945 -0.20760415 0.08297587 -0.006433028 0.18528636 -0.027490279 0.028751241 -0.035611153 -0.045862593 0.21889628 0.0835645 0.026808064 0.0275259 -0.006517005 0.112682536 -0.05074119 0.047199655 -0.21379668 0.0069011888 0.15080355 -0.07601692 0.0858145 0.097280845 -0.031221133 0.111770675 0.17027654 -0.027799906 -0.016476743 0.13813746 0.042037573
25 -0.1440837 0.161716 0.10747794 -0.0019260872 0.0007226675 -0.230292 -0.106241904 0.16148962 0.16818963 -0.20636271 -0.0020933652 -0.16843797 -0.19393726 -0.10762577 -0.031925052 0.028133081 -0.07378983 0.040226027 0.15867913 0.2125125 0.122550525 0.068925835 -0.13839726 -0.27831334 -0.18778107 0.14465913 -0.22672632 0.06577432 0.018711716 -0.18374443 -0.091040865 -0.176496 -0.089169234 -0.003616365 -0.082227655 -0.16068877 0.102356724 0.13948756 0.050630093 -0.013020046 -0.08426816 -0.2217403 -0.09762208 0.15568122 0.019122506 0.07612369 0.116183005 -0.13462828 -0.24510463 0.11255354 0.052377313 -0.04238997 0.028354859 0.21603917 0.08466756 0.080860354 -0.048589427 0.037580017 -0.04505183 0.12273209 -0.12663275 -0.038599744 0.009322945 -0.25237477
64 0.11672764 -0.17442732 0.16411978 0.12354944 0.20262557 -0.10840632 0.14198671 0.13203762 -0.11101832 -0.19543271 -0.034307104 -0.019268526 -0.29183406 -0.11820159 0.05671958 0.18019222 -0.19588807 0.1273383 -0.14834087 0.087307684 0.29195985 0.0034888848 0.015881924 -0.23223056 0.013263025 -0.074444056 -0.19012603 0.12359661 -0.027663197 0.045421403 -0.18629964 0.026870584 -0.099202245 -0.16376345 -0.09957569 0.01766526 -0.06409519 -0.034346122 -0.17163105 0.0066766813 0.07025244 0.12802103 -0.17582029 0.073119745 0.09612801 0.201292 -0.011621905 -0.04133145 0.042014923 0.033018216 -0.02387553 0.08084523 0.13585322 -0.09659035 0.0032750894 0.06352097 0.1440427 0.046140663 0.024448255 0.1400139 -0.1853385 -0.15548547 0.09163596 -0.011187282
32 -0.06457577 -0.1051035 -0.0023880652 -0.04657854 -0.08954262 -0.036203794 -0.21943218 0.011196295 -0.08984181 0.06138669 -0.054063044 -0.27658114 -0.12285013 -0.16538073 -0.068465024 0.020478442 -0.005098537 0.12178193 -0.0919609 0.07945384 0.04714612 0.13634971 0.14978759 -0.20256737 0.0068116016 0.17986047 -0.32804084 -0.1325427 7.564503e-05 0.16342092 0.04853867 -0.012618371 -0.08832292 -0.044295345 -0.21413445 0.13224182 0.0976678 0.052463494 0.03447597 0.074761756 0.021782057 0.085391164 -0.0025620845 -0.009165637 0.21765313 -0.2820173 0.017127927 -0.054404233 0.028487219 0.07341561 0.027058434 -0.10356489 0.15729463 0.09616189 -0.2660574 0.29736543 -0.030772379 0.11163539 -0.08019431 0.16515519 -0.11150491 -0.0656822 0.05970056 -0.11699878
86 -0.025796581 -0.19811639 -0.013439506 0.10748645 0.2641996 -0.0077959467 0.08895423 0.12328446 -0.09436404 -0.195158 0.086138725 -0.15362197 -0.116403386 -0.14595395 0.17437375 0.017226385 0.04729579 -0.10814128 -0.024215622 0.11993887 0.02126575 -0.08108169 0.12069613 -0.0953003 0.058463424 -0.08645308 -0.1366414 -0.13967277 -0.018850539 0.09900058 -0.1913921 -0.027883926 -0.023449415 0.029945472 -0.027294477 -0.08970993 -0.053358823 0.13578074 0.03659145 -0.07322004 0.23411103 0.24259834 -0.123610295 -0.11782389 0.09216385 0.016079405 0.0636496 0.034815792 0.12811904 0.09945564 -0.09068029 -0.1228116 0.07800257 0.35831028 0.07224116 0.2881017 0.052570876 0.00597777 -0.05451229 0.09779657 -0.12922345 -0.16507837 -0.010570816 -0.15110065
82 0.20231137 -0.027293814 0.23101123 0.12698865 0.0035736344 -0.17348304 0.1398947 -0.0059070634 -0.13450037 -0.06648951 -0.21175887 -0.08634033 -0.06344269 -0.083471 -0.09712405 -0.029766455 -0.09587947 -0.09044396 -0.0401193 0.14255759 0.15300758 -0.05738792 0.14481883 0.10512166 -0.07798814 0.07409124 0.015866458 -0.0333028 -0.03252603 0.04798589 -0.29638752 0.034138147 -0.10071775 0.06420777 -0.039036803 -0.07360692 0.09835378 -0.36230558 0.018897813 0.035215426 -0.11043166 -0.08907599 0.031713497 -0.03053646 0.02356072 -0.15021642 0.19025065 -0.19239017 0.011125284 0.06682615 -0.059065595 -0.15565774 0.2303744 0.28034505 0.19487213 0.24332897 -0.0573366 -0.12707455 0.032592308 0.10908799 -0.11927459 0.03357489 -0.1353319 0.0658209
85 -0.08725508 -0.09126326 0.16599748 0.08223774 -0.0030395822 0.0078735715 0.08150796 0.004807335 0.28312683 -0.06274433 -0.09015444 -0.23543014 0.010597255 -0.14786078 -0.09038251 0.08767627 -0.30337316 0.0550256 -0.06253715 0.15121563 0.1910689 0.11362382 0.12835419 -0.026546521 0.1247326 0.13015006 -0.17768885 0.010057256 0.15424742 0.05221325 0.05963998 0.16555677 -0.05301306 -0.040689863 -0.09729635 -0.11043264 0.13407034 0.009056399 0.31674474 0.002921826 -0.06927571 0.05791507 -0.0709956 0.16495588 0.061043356 -0.105093315 0.20159243 0.10418677 0.13268045 0.023116253 0.06777981 0.0989421 0.0887959 -0.042703424 0.031765502 0.24033146 -0.006312877 -0.06236609 -0.028082985 -0.015803963 -0.052191563 -0.36268365 0.044160526 0.14643936
15 -0.035307657 -0.013578326 0.10631708 0.0016836068 0.06714066 0.030642496 0.0026599136 0.06824923 0.042441174 -0.18092918 -0.20220782 -0.18472104 -0.07892333 0.1045097 0.15439339 -0.014897619 0.046186063 0.19721627 0.06959662 0.041890416 0.18377285 0.19811943 0.02284641 -0.030123675 -0.057102725 0.11722264 -0.17545229 -0.089510694 0.122774825 -0.20744479 -0.20310783 0.10950776 -0.09827221 0.06168844 -0.11718595 -0.19497418 0.012628031 0.04838015 0.038829956 -0.10347622 -0.06316503 0.036434866 -0.08158768 -0.08975411 0.23385836 -0.17616095 0.004819494 0.03934481 0.25513464 0.22158583 0.16046801 0.051820677 -0.02941433 0.22325413 0.0019126692 0.2055451 -0.09301942 0.08061646 0.21916956 0.24335279 -0.02442239 0.027771521 -0.07152506 -0.012569928
54 -0.0073806616 -0.13843681 0.10586583 0.08560653 -0.11037086 0.0784793 -0.06448737 -0.015922049 -0.08843118 -0.0052652857 -0.08812142 -0.12105268 -0.2686604 0.081215024 0.12033824 0.1846722 0.005560139 0.15933925 0.030988904 -0.016515564 0.2431242 0.25519633 0.034078714 -0.22132601 0.0466697 0.19619861 -0.15355192 -0.18139018 0.08382838 -0.008050452 -0.22468989 -0.10697823 -0.04155233 0.24163495 -0.023480235 0.09676221 0.25721383 -0.030171925 0.16377756 -0.0048667435 -0.25374892 0.026070653 -0.08050368 -0.013506628 0.1903831 -0.1565226 -0.019060733 0.007738074 -0.15812495 -0.05619421 0.024890061 -0.01934246 -0.1443311 0.22655955 0.07416214 -0.11073596 -0.027066953 0.07726977 -0.11075092 0.20026958 -0.037327636 -0.09624 0.0073585613 -0.3015861
1 0.094183646 -0.04770595 0.034471992 -0.075593516 -0.10037066 0.065294735 0.07352972 -0.009829336 -0.12374208 -0.1851258 0.19365175 -0.30538076 -0.014852694 -0.12483424 -0.04466234 0.049138874 -0.020243691 -0.019306047 -0.06000978 0.026923722 0.15600526 0.24923305 0.0028118342 0.10672118 -0.01636661 0.20106359 -0.11902585 -0.040446773 -0.03170123 0.050674282 -0.17651846 -0.27184793 0.078562014 -0.115679346 -0.44426394 -0.059252553 -0.020356601 -0.024216581 0.26498297 -0.03285329 0.0019271758 0.023660013 -0.13444918 0.054694172 -0.018054588 -0.17857642 -0.040612202 0.18354346 0.0649439 0.19807185 -0.00091085443 -0.20832422 -0.015013954 0.09815522 0.023615954 -0.07963805 -0.0029937485 -0.12841946 0.121812925 0.2101725 0.040112544 0.034328863 -0.105721906 -0.015926875
36 0.103883415 -0.058840267 0.14877759 0.0009955646 -0.0033469503 -0.123902045 -0.011403271 0.19121201 -0.18580061 -0.04615251 0.071224354 0.018758094 -0.018128868 -0.037511606 -0.09906534 0.15624702 -0.20257491 -0.12003461 -0.01834005 0.19660695 -0.061144855 -0.057163794 0.09743553 -0.39815047 0.14128426 -0.12038346 -0.14798659 -0.16133906 0.14426443 0.053688165 -0.101462886 0.035233695 0.1422611 -0.12459342 -0.32006705 -0.06960693 0.052098874 0.042078603 0.19390935 -0.056170356 -0.0111564845 -0.09013937 0.054170307 -0.11609756 0.18481196 -0.077162676 0.22938484 -0.14088051 0.16360702 -0.015732808 0.060552023 0.023871321 -0.03292429 0.09815249 0.08516123 0.1509376 0.05161429 -0.10025645 0.017900452 0.09236065 -0.07658622 -0.11624482 -0.04387704 -0.20712793
38 0.0008827045 -0.011337937 0.12475454 0.1530745 -0.14041246 -0.19292572 0.0979818 0.036266755 -0.42047518 -0.02925459 -0.07368173 -0.13316779 -0.14558138 -0.027365742 -0.042734582 -0.15071633 0.013206408 -0.100249045 0.02009969 0.11421912 0.045785192 -0.18508825 0.058884308 -0.17202531 0.02278056 0.017740842 -0.014241985 -0.008552036 0.110593066 0.11657648 -0.24232812 -0.04942345 -0.09846715 -0.10480898 -0.066391334 -0.13732736 0.06508535 -0.095336504 0.10342067 0.068794146 -0.011119723 0.04944828 -0.026095033 0.023275852 0.12203249 -0.11675528 -0.08473909 -0.25043428 -0.023358598 0.11216543 0.08613416 0.043097522 0.005031077 -0.035506397 -0.0105759315 0.013669772 -0.2148788 -0.06638792 -0.08725508 0.18491994 -0.09647991 -0.34634385 -0.0435202 -0.04871739
22 0.19566698 -0.21701059 0.012538588 -0.085879184 0.14108607 -0.035550892 -0.10692495 0.09731838 -0.069916986 -0.10837062 0.17597346 -0.3481581 -0.23086235 0.046936322 0.0483496 -0.021235704 0.03479581 0.108741514 -0.16453351 0.2469951 -0.033052705 0.095979586 0.06309683 -0.15957782 -0.049363554 0.07677258 0.05524354 -0.03337891 0.022160133 0.078319944 -0.06778624 0.10651861 -0.18922444 -0.27068058 0.05431616 -0.0922753 -0.080656976 -0.13946074 0.19442745 0.058294173 -0.2036914 -0.018774303 -0.08284877 -0.019404596 0.12244779 0.070338674 0.024622392 0.0056181364 -0.061072525 0.069752455 -0.08207127 -0.25384673 0.06622955 0.10169277 -0.029188715 0.21835491 0.032097988 -0.12201097 0.008657206 0.0634141 -0.11095925 -0.04611032 0.0059401016 0.06836817
23 0.08225985 -0.058684483 0.2251823 0.035238765 0.13887595 -0.03146731 0.100960486 0.0986611 -0.060412984 -0.003820171 0.06314549 -0.44361404 -0.041865673 -0.1536063 -0.062255062 0.09117231 -0.12291317 -0.04695597 -0.17738195 0.1729221 0.08986531 0.10341263 0.037534997 0.018473528 -0.019951716 0.111964054 -0.00042899273 0.14303039 -0.12501056 0.07249267 -0.05919034 0.028809417 -0.034859702 -0.011266985 -0.16133206 -0.07827508 0.043939214 0.07622717 -0.07827932 0.036232922 -0.054559764 0.027768878 0.093872435 0.038413305 -0.013777158 -0.18548931 0.094258666 -0.06384548 0.07799324 0.012617526 0.16142154 -0.04322398 -0.1758216 0.3506251 -0.18514444 0.110933475 -0.17795298 0.07528898 -0.00826294 0.14387363 -0.16719688 -0.2588182 0.030991403 -0.055020258
91 0.14438637 -0.09773041 0.09584957 0.09969196 0.03326896 -0.28384292 0.18658952 -0.1963817 -0.025374778 -0.06926968 -0.023399549 -0.1334104 -0.09555809 -0.009744458 0.14692721 0.16929674 -0.15022708 -0.10021755 -0.09832291 0.03750305 0.064389594 0.26330748 0.15583923 -0.1993611 -0.047365244 0.049905926 -0.25037888 0.14571653 0.020147309 -0.23366408 0.048819654 -0.015151349 0.15464997 -0.048669234 -0.014100191 -0.05744109 -0.018616842 0.15550286 0.2925653 -0.04005394 -0.016839989 -0.029410122 0.0069466135 0.031271968 0.0079541085 -0.028794104 0.031088207 0.27830967 -0.047216125 -0.16999108 0.054188162 0.015973546 0.19254239 0.2453612 0.022365019 0.07284554 0.012365193 0.02942079 0.014390372 0.23054618 -0.1432074 0.06664229 0.16262734 0.016074857
83 0.14978196 -0.16891272 0.16479239 -0.011367668 0.1507227 -0.027137768 -0.03795792 0.15627608 -0.09757625 -0.025787609 0.060174175 -0.056534085 -0.21564722 -0.08349721 -0.11424105 -0.17347564 -0.14019966 -0.09727017 0.1397974 0.114506945 0.22878818 0.18186288 0.121386684 0.08179072 0.023268461 0.047547065 -0.26759684 0.009371253 -0.034026835 0.012019236 0.068192214 0.027122984 0.009356654 -0.18282577 0.030204793 -0.16322775 -0.007190505 -0.07839487 0.0513928 -0.07915802 0.08284413 -0.053709634 -0.39456284 0.044293065 -0.076816596 -0.18494181 -0.061314955 -0.11348702 0.10741396 -0.112751134 0.0061655883 0.027759217 0.00059911155 0.3562682 -0.11804686 0.11690805 -0.032568015 0.04578023 0.05976832 0.17990606 0.04998743 -0.14459862 0.03471775 -0.013446638
6 0.021008898 -0.17254864 0.25763977 0.2879984 0.01723559 -0.10671956 -0.082932234 0.13190177 -0.1969557 -0.17603108 0.11817816 -0.16013435 -0.033113338 0.0060052546 0.041384224 0.105870835 0.07949456 -0.023091724 -0.002431032 0.18467319 0.15073662 -0.024395123 0.14084654 -0.21340302 -0.067413054 0.117987424 -0.08796052 -0.16201055 0.095521145 -0.06652151 -0.044764936 0.15842596 0.107131146 -0.15095423 -0.08226994 -0.27286693 -0.0352275 0.033293303 0.13106984 -0.0012152708 -0.04851581 0.066141225 -0.04469355 -0.08055014 0.14424591 -0.058132846 0.23049635 0.06581373 -0.050969973 -0.04519015 0.12116568 0.1203439 0.0442701 0.037019365 0.0006670943 0.035291366 0.01906576 -0.021870285 0.23270205 0.070194885 0.12067961 0.10783876 -0.22491723 -0.014371765
77 -0.044763137 -0.010036724 0.06501114 0.05827051 -0.16813011 -0.0408054 -0.06889429 -0.06448138 -0.034673512 -0.048534133 0.18770552 -0.095771454 -0.16848199 -0.28359163 0.09290146 0.09336452 -0.18863364 0.08504156 0.020636126 0.19794951 0.09576156 -0.04862129 0.11481468 0.040424634 0.045660757 0.13991897 -0.093665265 -0.06401957 0.23301308 -0.10663025 -0.09205973 0.057803694 0.20991297 0.13613303 0.14622433 -0.10457408 -0.07563436 0.18936504 -0.04955401 -0.11115185 0.06282481 0.31518012 -0.16986297 -0.021984836 0.10978407 -0.31240186 -0.047832984 0.023787087 0.05183626 0.1258164 0.1026601 -0.020138063 -0.016220307 0.11284272 0.06221462 0.11034907 0.03668542 -0.03566523 0.25248513 0.20176698 -0.11772096 -0.30293158 -0.25919262 -0.03473203
46 -0.023119938 -0.12572925 0.1892111 0.12046554 0.006430893 -0.15719189 0.113396764 -0.092198715 -0.04625946 -0.058619343 0.15580988 -0.08134338 -0.19227166 -0.1292189 -0.23623253 0.20959163 -0.22973727 -0.0075690174 -0.050298154 0.08827329 0.22261249 0.09198745 0.18047628 -0.06990067 -0.060096215 0.15946868 -0.029984873 -0.1247429 -0.048665952 -0.12218134 -0.11857804 -0.19731739 0.025275238 -0.13436504 -0.1654822 -0.04062044 0.0444784 0.0907011 0.23858343 0.10991843 0.0045760614 0.008175627 0.05141338 -0.14005932 0.0709304 0.13679075 0.029249143 -0.07451048 -0.18278264 0.028764391 -0.13390504 0.11615474 0.076577246 0.11534017 0.10351362 0.028577644 -0.03256683 0.14703697 0.1518777 0.17057969 0.17454888 -0.07576543 0.109191194 0.037976343
39 0.06501679 -0.001902271 0.104928754 0.10768096 -0.25925577 -0.055256415 0.22359596 0.110724166 -0.070144124 -0.09502604 0.10538752 -0.11500029 -0.03300856 -0.097322345 0.02849258 0.039254922 -0.028195841 0.12203849 -0.07982151 0.1170818 0.28161743 0.029908499 -0.026565371 -0.17843477 -0.024389358 0.11288469 -0.09514273 -0.045956545 0.20079185 -0.16382177 -0.005008097 -0.06664627 -0.1729136 0.080138594 -0.20148201 0.032296177 -0.022448411 -0.021082038 0.097200334 -0.0414783 -0.03564434 0.12595609 -0.12496985 -0.055799887 0.2284937 -0.15590945 0.2727055 0.033264786 -0.33094838 0.24787427 0.025749696 -0.3271732 0.11207945 -0.070871755 -0.020838846 0.008688001 -0.08637174 -0.084575616 0.03522385 0.13951847 -0.075129464 -0.07772049 0.14798349 0.041451573
87 0.06152422 -0.082695924 0.1003652 0.13131519 -0.04781304 -0.08832819 0.19161059 0.08855188 0.03603965 -0.068570845 -0.1713395 -0.26396525 -0.051009595 -0.12892255 0.058226813 -0.15618075 -0.04071382 -0.02250341 -0.10957533 0.26487106 0.14774239 0.0718678 -0.076823115 -0.045192793 0.09326407 -0.02668864 -0.24417907 0.030608736 -0.08599943 0.05725538 -0.13010408 -0.1072704 0.08955689 -0.04114821 0.023635786 -0.09472526 0.00318441 -0.08182527 0.015945647 0.12720288 -0.057852503 -0.0757077 -0.33014607 -0.16435233 0.026388904 -0.04619169 -0.015822314 0.18711355 0.26281306 -0.07328009 0.03920753 0.06119745 0.14408144 0.24552104 -0.03289129 -0.072226256 0.08168561 -0.08628865 -0.13409424 0.3801121 0.018003242 -0.07903097 0.14020292 0.082739346
11 0.07576924 -0.094779685 0.028970068 0.11238548 0.0052793687 -0.2605927 0.10682092 -0.019944984 0.03945415 -0.16036625 0.043579374 -0.12539555 -0.34825236 -0.02638239 0.032218497 0.15369777 0.23449259 -0.026153939 0.07756731 -0.1142791 0.06619458 0.1228098 0.189117 -0.034473475 -0.06569748 0.19319236 -0.09960251 0.22049625 -0.0018642241 -0.16032048 0.008538891 0.039454926 0.023192434 -0.04471805 -0.0025698186 -0.112339966 0.11666238 -0.092692316 0.035211418 -0.057141062 0.3501007 -0.036212575 -0.047398865 -0.01318731 0.111210175 -0.18136117 0.04724408 -0.09095107 -0.099317595 0.088415086 -0.06036371 -0.009873201 0.031011118 0.06854853 0.07145871 0.30290595 -0.011939387 0.029920956 -0.08094529 0.19678977 -0.2248094 -0.08475964 -0.0718213 -0.17071179
47 -0.11433859 -0.11626683 0.019322377 0.15808244 0.04927736 -0.12983312 0.010646546 0.081793115 -0.077329844 -0.109459 -0.003317146 -0.12672356 -0.29305652 -0.1260158 -0.017268384 0.09406768 -0.08927184 0.0024355277 0.22398664 0.11081792 0.068020076 0.28208676 0.023380037 -0.13220248 -0.04442319 -0.106262624 -0.047495276 0.062808156 0.17371906 0.12789029 -0.1023364 -0.032545 -0.08790428 -0.13952975 0.1269048 -0.028896095 -0.16875263 -0.08545346 0.3559478 0.1728255 -0.23843953 0.04026666 -0.05969631 -0.032176297 0.10375072 -0.34339544 0.13087232 0.0765487 -0.028523937 0.021386297 0.14212857 -0.0029763079 0.021087887 0.13261141 -0.08416712 -0.05228994 -0.22853713 0.012672192 -0.07271325 -0.038106162 -0.22619766 -0.15217152 0.044873986 -0.07770734
66 0.05774101 -0.13868906 0.18999463 0.16054188 0.31885052 -0.31759483 -0.0028372647 0.10393144 0.03672012 0.024545105 0.025766458 -0.12828042 -0.123480245 -0.21974182 0.084713854 -0.096766345 -0.049437262 0.02982404 0.034903638 0.08876109 0.19325186 0.04320585 0.047219455 0.0042255223 -0.08500068 0.093113475 0.009285815 0.020370986 0.0440057 -0.0085542705 -0.19851792 -0.08685783 -0.08406204 0.08901153 -0.15392849 -0.019584354 -0.00654521 -0.1110333 0.25732055 -0.08678649 -0.17028265 0.1528068 -0.21296906 -0.25680965 0.13821277 -0.14759701 -0.08335543 -0.06266785 -0.16979711 0.034479972 0.09126207 -0.0430875 0.0747164 -0.1284986 0.12588611 0.22152992 0.047579046 -0.072387 0.103662565 0.057072368 -0.16644558 -0.0063563217 0.12374753 0.056342527
44 -0.106394775 -0.28617585 0.093488775 0.03293847 -0.09701416 -0.0124680735 0.2359536 -0.23986332 0.004736099 -0.03733394 -0.09238339 -0.012083517 -0.2622694 -0.13526917 0.014755592 -0.022469802 -0.06298752 0.0153355645 -0.043021895 0.06616505 0.1745734 0.061548643 0.09431452 0.020830544 -0.03525228 -0.06959158 0.10452766 -0.007965167 0.02746079 -0.098240204 -0.06767125 0.028355287 -0.07168349 -0.018262092 -0.072251014 0.029008778 0.10612796 -0.08210926 0.22269098 0.055343322 0.09341055 -0.21995723 -0.13813078 0.049780305 0.17719086 -0.049564824 -0.06606888 0.06640614 0.06538566 -0.06248695 0.03681521 0.04534459 0.22372013 0.08360351 -0.21383841 0.0022763652 0.18584892 -0.15387209 0.031852666 0.41271937 -0.2698296 -0.37249282 0.12312141 -0.06575378
37 -0.078072846 0.12944722 -0.09199614 -0.04159735 -0.1215693 -0.19480857 0.0587952 0.036686424 -0.14500757 -0.019498872 -0.07053676 0.01761013 -0.11954679 -0.06510345 0.06318901 0.014305051 -0.021170836 -0.19664025 -0.0328999 0.27298626 0.13451289 0.076410145 0.12386798 -0.15347485 0.09062479 -0.030027734 -0.01127752 -0.06848629 -0.015270621 0.09026766 -0.2526108 -0.032113027 0.09200079 -0.19588953 -0.16456269 0.10431112 0.10453353 0.10172859 0.059372265 -0.1740523 -0.112145655 0.053375125 -0.1733872 0.12359504 0.2617884 -0.18163645 0.04287685 0.056715243 0.18172187 0.14698792 0.1529368 0.06699711 0.19419701 0.048179 0.03460111 -0.095258206 0.022855954 0.14264652 0.11705748 0.32934767 -0.042655755 -0.09168911 -0.10963793 -0.061224967
45 -0.10227155 0.041161064 0.09342906 -0.033707358 0.04816234 -0.0688094 0.03249748 -0.20429975 -0.15116943 -0.12883766 0.041617304 -0.3275487 -0.30289188 -0.08382655 0.08425088 -0.0436694 -0.133219 -0.11744065 -0.17898588 0.115872584 0.08741645 0.14470622 0.011013509 -0.002437841 -0.30532125 -0.18011144 -0.23129834 0.017553492 -0.01625695 -0.0033575268 0.08699919 0.021388585 0.14010422 -0.22408018 -0.1791436 0.11305713 0.13622406 0.05363467 0.22803672 0.016541135 0.11233148 0.009368465 -0.21258669 0.07554573 0.26410314 -0.037934896 0.09423855 -0.09220855 -0.0037996802 0.0893573 -0.0915807 0.08874702 -0.03647963 0.08871396 0.1744227 -0.03679776 -0.048326235 0.08547397 0.06631385 0.1855033 0.010575994 -0.07713712 -0.06180534 -0.037993375
3 -0.15374248 -0.013051333 0.20180598 0.061115194 -0.18957181 -0.1869625 -0.012559827 0.27111816 -0.30501693 -0.029783629 0.20986901 -0.07041921 -0.0815517 0.11432339 -0.0019247179 0.08123335 -0.06189323 -0.011776321 0.15775466 0.20703292 0.28503665 0.09325529 -0.20006777 -0.09641984 -0.08593396 0.14117248 -0.10265807 -0.08972058 0.1033375 -0.15710181 -0.009258756 -0.2634203 0.076787844 -0.072641395 -0.04304883 -0.088960156 0.041550964 0.089866236 -0.08665393 -0.0111562265 0.082685314 -0.17487143 0.0037917902 0.06931435 0.11108321 -0.03364112 0.06694607 0.1255198 0.15489551 0.20684025 -0.055730917 -0.05661966 0.37271386 0.18701567 0.0070358273 0.04877896 0.096770585 -0.18414178 0.09620284 0.08546771 -0.06392012 -0.065727584 0.112504706 -0.12071622
